encog,BasicNetwork,java,3.2.0,1,63608322367678
[BASIC]
[BASIC:PARAMS]
[BASIC:NETWORK]
beginTraining=0
connectionLimit=0
contextTargetOffset=0,0,0
contextTargetSize=0,0,0
endTraining=2
hasContext=f
inputCount=3
layerCounts=1,7,4
layerFeedCounts=1,6,3
layerContextCount=0,0,0
layerIndex=0,1,8
output=0,0,0,0,0,0,0,1,0,0,0,1
outputCount=1
weightIndex=0,7,31
weights=0.712497866733793,0.46925270492732,0.198661203785694,0.348926884027453,0.163759829278175,-0.690486953473808,-0.159020729613094,6.46027621913081,6.04247955145786,-5.05170210595052,0.960918294958896,0.802045296167198,-3.9770079665167,-0.564788784287769,0.794205621939186,-0.206380517161084,0.278685541633587,0.309762269475974,-0.286793354270806,0.341822695161907,11.8260638346875,0.239069790109138,0.844073707571668,-0.17956464215163,-0.00742401466591558,1.19848571909032,-0.37456312582937,5.82299386016168,1.96520579149629,0.42890580508724,-0.617391089193137
biasActivation=0,1,1
[BASIC:ACTIVATION]
"ActivationTANH"
"ActivationTANH"
"ActivationLinear"
