encog,BasicNetwork,java,3.2.0,1,63608333469724
[BASIC]
[BASIC:PARAMS]
[BASIC:NETWORK]
beginTraining=0
connectionLimit=0
contextTargetOffset=0,0,0
contextTargetSize=0,0,0
endTraining=2
hasContext=f
inputCount=3
layerCounts=1,7,4
layerFeedCounts=1,6,3
layerContextCount=0,0,0
layerIndex=0,1,8
output=0,0,0,0,0,0,0,1,0,0,0,1
outputCount=1
weightIndex=0,7,31
weights=0.290662372222293,0.428800820333057,0.223218422672381,0.56941710745565,-0.642209600880478,0.169298086928842,-0.210051211923696,1.08385005706403,3.30447208578168,-0.696367056820796,0.557342559457959,1.23704627384789,-4.87780343681758,-2.48534213021477,1.48547672231786,0.431096668937084,0.116268388180762,0.00589102651428695,-0.530478049220934,1.16250494166239,3.37235874235657,0.86480075307307,1.11508269887345,4.32536987911846,1.8079559583623,0.82773286997678,-0.660610028273301,0.522378480718267,0.37561422484506,-0.0834861722183219,-0.369018342940719
biasActivation=0,1,1
[BASIC:ACTIVATION]
"ActivationTANH"
"ActivationTANH"
"ActivationLinear"
