encog,BasicNetwork,java,3.2.0,1,63608280608944
[BASIC]
[BASIC:PARAMS]
[BASIC:NETWORK]
beginTraining=0
connectionLimit=0
contextTargetOffset=0,0,0
contextTargetSize=0,0,0
endTraining=2
hasContext=f
inputCount=3
layerCounts=1,7,4
layerFeedCounts=1,6,3
layerContextCount=0,0,0
layerIndex=0,1,8
output=0,0,0,0,0,0,0,1,0,0,0,1
outputCount=1
weightIndex=0,7,31
weights=-0.512949728577378,-1.85373867965857,2.33117780381353,0.111026590573585,-0.38547900909853,0.349142127466451,0.131143091389356,0.219177354517965,0.76529217184725,-0.540000951647877,-0.083839024373428,-0.0282706101572322,1.38953419312404,-0.119355531153114,0.138719400609633,0.1805548891763,3.70235482736805,-1.09826350608668,0.860544769093797,-0.170663520056358,-0.430488045632605,0.390273450492199,-0.9623131959194,0.331710610043396,0.93563993024597,-0.274804537150035,0.454772493340752,-0.311817354548665,-0.744528621624183,0.474432759343936,-0.447855870108261
biasActivation=0,1,1
[BASIC:ACTIVATION]
"ActivationTANH"
"ActivationTANH"
"ActivationLinear"
