encog,BasicNetwork,java,3.2.0,1,63608328585777
[BASIC]
[BASIC:PARAMS]
[BASIC:NETWORK]
beginTraining=0
connectionLimit=0
contextTargetOffset=0,0,0
contextTargetSize=0,0,0
endTraining=2
hasContext=f
inputCount=3
layerCounts=1,7,4
layerFeedCounts=1,6,3
layerContextCount=0,0,0
layerIndex=0,1,8
output=0,0,0,0,0,0,0,1,0,0,0,1
outputCount=1
weightIndex=0,7,31
weights=-0.337612411580774,0.349596531188785,1.28923837930128,0.472815246816076,-0.553616931802427,-0.172852980387907,0.0843826837580206,0.0890712985061065,1.20470957153848,0.0257793167887262,0.447690218852889,-0.0201582311904908,-1.25688319711909,-0.0886669238629123,-0.291491243182441,1.60045467877196,9.4849683644511,-1.64842858293414,1.72516341823483,-0.352213343003698,-1.11427382612881,-0.165128045278693,-0.281456291266437,0.310219682190892,1.61773913628234,0.244415000860489,-0.356256195217744,0.100794234522822,1.05620081651423,0.17843825188403,0.279957707385334
biasActivation=0,1,1
[BASIC:ACTIVATION]
"ActivationTANH"
"ActivationTANH"
"ActivationLinear"
