encog,BasicNetwork,java,3.2.0,1,63608287546308
[BASIC]
[BASIC:PARAMS]
[BASIC:NETWORK]
beginTraining=0
connectionLimit=0
contextTargetOffset=0,0,0
contextTargetSize=0,0,0
endTraining=2
hasContext=f
inputCount=3
layerCounts=1,7,4
layerFeedCounts=1,6,3
layerContextCount=0,0,0
layerIndex=0,1,8
output=0,0,0,0,0,0,0,1,0,0,0,1
outputCount=1
weightIndex=0,7,31
weights=0.093472783298815,-1.18140469032762,0.299170363346322,0.211262797003683,0.359037535059103,0.267185241689812,-0.325288273560832,0.221009747498165,0.037848942542769,0.093508990590616,-0.053929452057513,2.6383803163175,2.03353232763399,0.364026067242755,-0.645207659111273,0.254801521550248,3.99154425698035,-0.199928093571648,0.553227322998207,2.87811120331171,-0.101340384417845,-1.20791552727479,0.676117180759298,3.00113872179107,4.53967882082628,-1.28064349032227,1.04384440628438,3.03201319673103,3.19912590440473,-2.33240484910911,1.58867167980088
biasActivation=0,1,1
[BASIC:ACTIVATION]
"ActivationTANH"
"ActivationTANH"
"ActivationLinear"
