encog,BasicNetwork,java,3.2.0,1,63608282816569
[BASIC]
[BASIC:PARAMS]
[BASIC:NETWORK]
beginTraining=0
connectionLimit=0
contextTargetOffset=0,0,0
contextTargetSize=0,0,0
endTraining=2
hasContext=f
inputCount=3
layerCounts=1,7,4
layerFeedCounts=1,6,3
layerContextCount=0,0,0
layerIndex=0,1,8
output=0,0,0,0,0,0,0,1,0,0,0,1
outputCount=1
weightIndex=0,7,31
weights=0.320639591310942,0.959822756352079,-0.349741062852663,-0.0815981554399819,0.229007351567422,0.669961539365206,0.144730340091731,-0.19470105757416,-0.056875757117196,0.300318523110264,-0.426698713907413,2.00180981356577,-1.72976558946149,-0.636052392452103,0.618647419471728,3.25473063489258,0.482853515631719,0.372343237607267,-0.0385733984010969,0.850208541701371,0.458095054240112,0.116543334455753,0.14796863032121,-0.258170888731804,0.0707537843311731,0.14193953318567,-0.348391121421487,-0.246135289056656,18.9481705987833,-1.600788913368,1.28493850622321
biasActivation=0,1,1
[BASIC:ACTIVATION]
"ActivationTANH"
"ActivationTANH"
"ActivationLinear"
