encog,BasicNetwork,java,3.2.0,1,63608311131094
[BASIC]
[BASIC:PARAMS]
[BASIC:NETWORK]
beginTraining=0
connectionLimit=0
contextTargetOffset=0,0,0
contextTargetSize=0,0,0
endTraining=2
hasContext=f
inputCount=3
layerCounts=1,7,4
layerFeedCounts=1,6,3
layerContextCount=0,0,0
layerIndex=0,1,8
output=0,0,0,0,0,0,0,1,0,0,0,1
outputCount=1
weightIndex=0,7,31
weights=-1.02255726654117,0.899986735034279,0.127965942154556,-0.244502128288694,0.066339866214875,0.254958052030459,0.139208231679324,10.4121451837367,2.03663503177342,0.837616857050828,-0.637002743322518,17.5013545755605,-0.229864615735553,-0.945783769772544,0.746612655847701,0.421755012343374,0.478751796463117,0.326208243624373,-0.185897890128434,-0.310572444176288,-0.143095198553564,-0.447561356946331,0.532522284556568,0.753821159937555,0.104263328699968,0.370026471465569,-0.25543395605457,0.153647546880579,0.233195730282995,0.2389843456556,-0.465668437143218
biasActivation=0,1,1
[BASIC:ACTIVATION]
"ActivationTANH"
"ActivationTANH"
"ActivationLinear"
