encog,BasicNetwork,java,3.2.0,1,63608281696173
[BASIC]
[BASIC:PARAMS]
[BASIC:NETWORK]
beginTraining=0
connectionLimit=0
contextTargetOffset=0,0,0
contextTargetSize=0,0,0
endTraining=2
hasContext=f
inputCount=3
layerCounts=1,7,4
layerFeedCounts=1,6,3
layerContextCount=0,0,0
layerIndex=0,1,8
output=0,0,0,0,0,0,0,1,0,0,0,1
outputCount=1
weightIndex=0,7,31
weights=-0.795479334657954,0.570525653328222,0.13720959077297,-0.742503690531521,0.376724396103147,0.118542103930351,-0.0920174076008901,-0.730486031658814,1.22705740147667,0.439900428794417,-0.149211130365075,0.409311679146997,18.2363208261066,-1.00814865767693,1.0036069225342,0.446347136965284,-0.421393043700806,-0.039003821702403,-0.540408870352065,1.68139349714497,1.45567993096442,0.284849944976953,-0.690515400911253,0.482247404425705,17.8667051092418,-1.02935503799251,0.777739338967645,0.578879948866453,-0.597221538634158,-0.121768311900184,-0.610499225758697
biasActivation=0,1,1
[BASIC:ACTIVATION]
"ActivationTANH"
"ActivationTANH"
"ActivationLinear"
