encog,BasicNetwork,java,3.2.0,1,63608277000422
[BASIC]
[BASIC:PARAMS]
[BASIC:NETWORK]
beginTraining=0
connectionLimit=0
contextTargetOffset=0,0,0
contextTargetSize=0,0,0
endTraining=2
hasContext=f
inputCount=3
layerCounts=1,7,4
layerFeedCounts=1,6,3
layerContextCount=0,0,0
layerIndex=0,1,8
output=0,0,0,0,0,0,0,1,0,0,0,1
outputCount=1
weightIndex=0,7,31
weights=-0.243862821497014,0.107895912836715,0.195757544738506,0.0106060166341181,-0.481808759647146,0.621945198296355,-0.159885317685789,-0.265643827916287,0.802904458675265,0.212503543235147,0.227847018088881,2.08983597121518,5.71185655349345,-2.12384867214395,1.31011385803103,-1.57842492311627,-4.62482133709908,0.373291747888567,1.58710144968462,0.820033719561548,-0.791790408274254,1.94444573690564,0.14771540745836,1.89978080576808,2.45607204635831,-1.40935053673321,-1.2723649429416,0.311843870492343,15.8402505345718,-3.53673087717385,1.84443536390482
biasActivation=0,1,1
[BASIC:ACTIVATION]
"ActivationTANH"
"ActivationTANH"
"ActivationLinear"
