encog,BasicNetwork,java,3.2.0,1,63608326197635
[BASIC]
[BASIC:PARAMS]
[BASIC:NETWORK]
beginTraining=0
connectionLimit=0
contextTargetOffset=0,0,0
contextTargetSize=0,0,0
endTraining=2
hasContext=f
inputCount=3
layerCounts=1,7,4
layerFeedCounts=1,6,3
layerContextCount=0,0,0
layerIndex=0,1,8
output=0,0,0,0,0,0,0,1,0,0,0,1
outputCount=1
weightIndex=0,7,31
weights=0.802362644196996,0.109965069775079,-0.077061786680426,-0.343548537211024,0.344074576383622,0.278908360674715,-0.0800312360982223,0.0216402128876017,12.957857246292,-2.40648707187309,1.37676190670904,-0.0877346238743809,-0.930318340133954,0.03489815720514,0.0669054678698505,1.07942806018946,1.19725506625407,0.51989117465467,-0.332092318644545,0.364121262357036,0.706968902684885,0.401950304295786,0.113025829995898,0.702998607615487,-8.79838137163125,-0.421229070674013,1.72583995568603,0.667421976566057,-1.6248415200744,2.34031828888615,0.396075616634509
biasActivation=0,1,1
[BASIC:ACTIVATION]
"ActivationTANH"
"ActivationTANH"
"ActivationLinear"
