encog,BasicNetwork,java,3.2.0,1,63608290507671
[BASIC]
[BASIC:PARAMS]
[BASIC:NETWORK]
beginTraining=0
connectionLimit=0
contextTargetOffset=0,0,0
contextTargetSize=0,0,0
endTraining=2
hasContext=f
inputCount=3
layerCounts=1,7,4
layerFeedCounts=1,6,3
layerContextCount=0,0,0
layerIndex=0,1,8
output=0,0,0,0,0,0,0,1,0,0,0,1
outputCount=1
weightIndex=0,7,31
weights=0.073985302704104,0.340122959508001,-1.07057908087664,0.344495196482381,0.242851406590755,-0.613102631439226,-0.207700174543494,0.282140931217569,0.067873030162962,-0.107484001412001,0.168820202715489,0.472460876403263,2.34796351688622,-0.398880309631244,0.109526018102523,3.25636078874211,1.50761444860568,0.758207820551562,-0.442704289083107,0.417805455595977,0.293952518104046,1.00725526824733,0.488964861300076,1.49733148560735,-0.0766113156360865,0.175234661234141,0.629690551861881,-10.6122902142908,1.7137210592755,1.39747908630904,-1.01441874563173
biasActivation=0,1,1
[BASIC:ACTIVATION]
"ActivationTANH"
"ActivationTANH"
"ActivationLinear"
