encog,BasicNetwork,java,3.2.0,1,63608280611921
[BASIC]
[BASIC:PARAMS]
[BASIC:NETWORK]
beginTraining=0
connectionLimit=0
contextTargetOffset=0,0,0
contextTargetSize=0,0,0
endTraining=2
hasContext=f
inputCount=3
layerCounts=1,7,4
layerFeedCounts=1,6,3
layerContextCount=0,0,0
layerIndex=0,1,8
output=0,0,0,0,0,0,0,1,0,0,0,1
outputCount=1
weightIndex=0,7,31
weights=-0.0649762875123269,0.154025353076338,-0.826601165022148,0.37306904857649,-0.738409660460624,0.337470018508923,-0.256147375346518,0.421256209311698,0.043560328458409,-0.0561668045492259,0.556440422085539,-1.12171841461378,-0.058365776689094,0.140065277080423,-0.068801360532823,1.8358385933047,0.734709501595153,0.505748218357875,-0.461840862044248,-0.304615354237586,0.226546465578703,6.72517945896459,0.64979618145065,-7.23923342926709,0.783834424977088,1.31278299176093,-0.929122952324829,1.20614305226522,-0.989233190318142,-1.14747613476235,0.623626429914345
biasActivation=0,1,1
[BASIC:ACTIVATION]
"ActivationTANH"
"ActivationTANH"
"ActivationLinear"
