encog,BasicNetwork,java,3.2.0,1,63608326200406
[BASIC]
[BASIC:PARAMS]
[BASIC:NETWORK]
beginTraining=0
connectionLimit=0
contextTargetOffset=0,0,0
contextTargetSize=0,0,0
endTraining=2
hasContext=f
inputCount=3
layerCounts=1,7,4
layerFeedCounts=1,6,3
layerContextCount=0,0,0
layerIndex=0,1,8
output=0,0,0,0,0,0,0,1,0,0,0,1
outputCount=1
weightIndex=0,7,31
weights=0.348120920439959,-0.506532841007081,0.245978312329999,-0.730698028174554,0.229154003033349,0.411975620693944,0.112375008229139,-0.605506370809236,0.127590619802983,0.00477437378281888,-0.521001356579419,-12.0016704815622,2.21020858663986,1.4103142099445,-0.714124737689304,-0.823705525407771,0.523777558201039,6.88843854367251,1.18204033261705,0.526196824085192,-2.14920774780225,-0.0184399440406892,-0.482603782318104,-0.637005971579611,0.0686991234609775,0.0189096824130971,-0.520314908438283,1.6029593031713,-3.38523377486162,-2.27763886302117,0.795688890775093
biasActivation=0,1,1
[BASIC:ACTIVATION]
"ActivationTANH"
"ActivationTANH"
"ActivationLinear"
