encog,BasicNetwork,java,3.2.0,1,63608311134459
[BASIC]
[BASIC:PARAMS]
[BASIC:NETWORK]
beginTraining=0
connectionLimit=0
contextTargetOffset=0,0,0
contextTargetSize=0,0,0
endTraining=2
hasContext=f
inputCount=3
layerCounts=1,7,4
layerFeedCounts=1,6,3
layerContextCount=0,0,0
layerIndex=0,1,8
output=0,0,0,0,0,0,0,1,0,0,0,1
outputCount=1
weightIndex=0,7,31
weights=-1.26504120006067,0.0149424060092692,-0.79626294922372,0.555820280972802,0.565991144331252,-0.546129858451515,-0.185963456186898,0.468420487617739,-0.0806287674099104,0.115335532145976,0.205925824768843,-0.777847894894212,0.499570914957148,0.23447921337219,-0.238411587943526,-2.33767341113393,1.06493284335577,2.15592390695808,-1.05107732315116,2.72600231593034,-1.70192725880313,-0.337177952425225,0.986143702898093,-0.32205471698056,0.171034113819897,7.09171867436067,0.680531369758701,0.290092367457417,-0.38789556511336,-0.030985959426708,-0.0827139417127462
biasActivation=0,1,1
[BASIC:ACTIVATION]
"ActivationTANH"
"ActivationTANH"
"ActivationLinear"
