encog,BasicNetwork,java,3.2.0,1,63608261455779
[BASIC]
[BASIC:PARAMS]
[BASIC:NETWORK]
beginTraining=0
connectionLimit=0
contextTargetOffset=0,0,0
contextTargetSize=0,0,0
endTraining=2
hasContext=f
inputCount=3
layerCounts=1,7,4
layerFeedCounts=1,6,3
layerContextCount=0,0,0
layerIndex=0,1,8
output=0,0,0,0,0,0,0,1,0,0,0,1
outputCount=1
weightIndex=0,7,31
weights=0.572849648827039,-0.282946714614959,0.378204991298357,0.22238143720775,0.107928043270916,0.89446898988645,-0.193967266424544,-0.317353374389806,1.03123141370285,0.353754010070467,-0.0246876391333984,0.392494718003177,0.175458403492618,0.729175353245462,-0.093497428087275,-0.141191371365589,0.955851202064392,0.421319862032983,0.0970513090904358,-0.253879938220192,0.936195179098213,0.184187721993213,-0.361570917058707,-0.093345557582508,0.902328968451734,-0.0937027759714225,0.192322050245257,-0.54335784196645,0.651942503029477,-0.106779708168724,0.271081106755318
biasActivation=0,1,1
[BASIC:ACTIVATION]
"ActivationTANH"
"ActivationTANH"
"ActivationLinear"
