encog,BasicNetwork,java,3.2.0,1,63608322367811
[BASIC]
[BASIC:PARAMS]
[BASIC:NETWORK]
beginTraining=0
connectionLimit=0
contextTargetOffset=0,0,0
contextTargetSize=0,0,0
endTraining=2
hasContext=f
inputCount=3
layerCounts=1,7,4
layerFeedCounts=1,6,3
layerContextCount=0,0,0
layerIndex=0,1,8
output=0,0,0,0,0,0,0,1,0,0,0,1
outputCount=1
weightIndex=0,7,31
weights=0.182849737321445,-0.127831708346315,-1.0615546276565,0.778626686314275,-0.0552937184570434,-0.008366584210157,-0.247448459043895,5.85271893131128,-1.21220183907618,-0.073093382395333,0.435114857859308,0.0184079421773991,0.094641318174502,0.147114910822967,0.235478308441593,6.74336037096338,0.635372112878561,1.77046915739569,-0.718379089885784,3.65611594539102,-1.1780733216266,0.908258768767589,0.757116650003142,0.23634160021455,0.226482718507296,0.36947815230461,0.26983786761905,-0.0380650599489502,0.195975996106882,0.314783626820942,0.0778338027641778
biasActivation=0,1,1
[BASIC:ACTIVATION]
"ActivationTANH"
"ActivationTANH"
"ActivationLinear"
