encog,BasicNetwork,java,3.2.0,1,63608269445244
[BASIC]
[BASIC:PARAMS]
[BASIC:NETWORK]
beginTraining=0
connectionLimit=0
contextTargetOffset=0,0,0
contextTargetSize=0,0,0
endTraining=2
hasContext=f
inputCount=3
layerCounts=1,7,4
layerFeedCounts=1,6,3
layerContextCount=0,0,0
layerIndex=0,1,8
output=0,0,0,0,0,0,0,1,0,0,0,1
outputCount=1
weightIndex=0,7,31
weights=0.357709502911632,-0.769187239025718,0.140617559582475,-0.565329271258671,-1.19216600319494,-0.201837604483442,-0.0347654741676437,28.7499401127161,-1.88813300841745,-1.55152179385719,0.898203794462616,8.81786238859782,0.0992572033243506,-0.000533326140455103,-0.0229236917730755,-0.241317382265362,0.773449122771244,0.321828665554277,-0.528768225108813,0.709964746552707,-0.0999629173754115,-0.442901285783011,-0.07794056974247,-26.9304245421127,1.77206185700969,1.40341930550044,-1.16201943543791,0.867345710815643,0.0192292675876339,-0.0364713134385951,0.159530576155811
biasActivation=0,1,1
[BASIC:ACTIVATION]
"ActivationTANH"
"ActivationTANH"
"ActivationLinear"
