encog,BasicNetwork,java,3.2.0,1,63608287548226
[BASIC]
[BASIC:PARAMS]
[BASIC:NETWORK]
beginTraining=0
connectionLimit=0
contextTargetOffset=0,0,0
contextTargetSize=0,0,0
endTraining=2
hasContext=f
inputCount=3
layerCounts=1,7,4
layerFeedCounts=1,6,3
layerContextCount=0,0,0
layerIndex=0,1,8
output=0,0,0,0,0,0,0,1,0,0,0,1
outputCount=1
weightIndex=0,7,31
weights=0.285247395116277,-1.16865772290371,0.155508299780412,0.19735555393337,-0.0877660994513763,0.620671655005845,-0.15771241154586,-0.420957688968964,-0.00500373035899818,0.198553305202179,-0.502756325421023,-1.39311495495978,1.76443771310714,1.14644363605036,-0.644873151918822,-0.369678211415126,20.9981205504704,-0.0764619928447944,0.648536656787604,-0.341510471446583,0.150740956551126,-0.00190992275300625,-0.539666894058232,4.86611956530059,0.148395735753048,0.265482245530663,0.223575362918499,-0.343438889803314,21.3460951289129,0.271540918201485,3.58431942534916
biasActivation=0,1,1
[BASIC:ACTIVATION]
"ActivationTANH"
"ActivationTANH"
"ActivationLinear"
