encog,BasicNetwork,java,3.2.0,1,63608277000736
[BASIC]
[BASIC:PARAMS]
[BASIC:NETWORK]
beginTraining=0
connectionLimit=0
contextTargetOffset=0,0,0
contextTargetSize=0,0,0
endTraining=2
hasContext=f
inputCount=3
layerCounts=1,7,4
layerFeedCounts=1,6,3
layerContextCount=0,0,0
layerIndex=0,1,8
output=0,0,0,0,0,0,0,1,0,0,0,1
outputCount=1
weightIndex=0,7,31
weights=0.286741420455057,-1.24046876501229,0.329724023208608,0.232497733398185,0.312032163583472,-0.484934127624557,-0.07918564103818,0.603132293283346,-0.000364308298970437,0.0144404844291745,-0.298472697041355,25.7951221138585,1.5099246849206,0.967105098884134,-0.683668981616471,0.896933111175076,0.234992791861723,-0.0126237201687432,0.0290881435961784,6.9391325525939,-0.135619973039683,-0.593179913134411,0.580418761335199,0.913933021886598,0.130152894071876,0.214322560016866,-0.0346149776354427,-17.197033087117,0.259629670460245,0.151171250498305,-0.516782875437402
biasActivation=0,1,1
[BASIC:ACTIVATION]
"ActivationTANH"
"ActivationTANH"
"ActivationLinear"
