encog,BasicNetwork,java,3.2.0,1,63608281697859
[BASIC]
[BASIC:PARAMS]
[BASIC:NETWORK]
beginTraining=0
connectionLimit=0
contextTargetOffset=0,0,0
contextTargetSize=0,0,0
endTraining=2
hasContext=f
inputCount=3
layerCounts=1,7,4
layerFeedCounts=1,6,3
layerContextCount=0,0,0
layerIndex=0,1,8
output=0,0,0,0,0,0,0,1,0,0,0,1
outputCount=1
weightIndex=0,7,31
weights=1.04103136731968,0.337160590366357,0.107692555815102,0.236702638053027,-1.4195040825208,0.166731898868283,0.104444258690557,19.383859650014,-0.89527323955912,-0.409229262768523,0.284083684447479,0.157543204529925,0.060927150759385,0.128174028055434,-0.449757244951306,0.563482020939822,1.33459910362974,0.834722122275471,0.557875313465291,0.066809888668928,0.266914716635642,0.131326520168421,-0.553630471085142,10.8813733765841,0.671514426615694,0.724301964653586,-0.574310409425365,0.487845607029172,-0.00295276024043922,0.304479655150108,0.269923616504037
biasActivation=0,1,1
[BASIC:ACTIVATION]
"ActivationTANH"
"ActivationTANH"
"ActivationLinear"
