encog,BasicNetwork,java,3.2.0,1,63608328588176
[BASIC]
[BASIC:PARAMS]
[BASIC:NETWORK]
beginTraining=0
connectionLimit=0
contextTargetOffset=0,0,0
contextTargetSize=0,0,0
endTraining=2
hasContext=f
inputCount=3
layerCounts=1,7,4
layerFeedCounts=1,6,3
layerContextCount=0,0,0
layerIndex=0,1,8
output=0,0,0,0,0,0,0,1,0,0,0,1
outputCount=1
weightIndex=0,7,31
weights=0.21743757158739,-0.358884663672602,-1.16123903991414,0.583755581349441,0.181347165907963,-0.438261929914962,0.224285636081746,-0.561517786982696,0.291752624428048,0.233188256772387,-0.551512082041561,3.41672747340857,0.225004471616963,0.162806009313159,0.0587190980215894,-28.2893635296665,2.27407283990154,1.20081310643752,-0.873989940648815,-0.414572408967845,0.478588862692185,0.186799875019464,-0.359658718620461,-1.12861890492244,0.977572074648268,0.112648874469227,0.335248473845608,19.0805191520199,0.0095119683693058,0.557671817128088,-0.626278477153524
biasActivation=0,1,1
[BASIC:ACTIVATION]
"ActivationTANH"
"ActivationTANH"
"ActivationLinear"
