encog,BasicNetwork,java,3.2.0,1,63608282816734
[BASIC]
[BASIC:PARAMS]
[BASIC:NETWORK]
beginTraining=0
connectionLimit=0
contextTargetOffset=0,0,0
contextTargetSize=0,0,0
endTraining=2
hasContext=f
inputCount=3
layerCounts=1,7,4
layerFeedCounts=1,6,3
layerContextCount=0,0,0
layerIndex=0,1,8
output=0,0,0,0,0,0,0,1,0,0,0,1
outputCount=1
weightIndex=0,7,31
weights=-1.05424923147498,0.120025117285896,0.110383171273487,-0.924735526287811,-0.0644555129650234,0.132843173217755,0.0537538733349501,-27.6909924146015,2.48121084403925,1.31205380782242,-0.856005070009051,-0.276102966552224,0.618698895104995,0.2498379382283,-0.627982650698554,-0.402140931748381,0.399109365876529,0.15501206012521,-0.655440263559437,4.9343252885626,-0.269007252513498,0.095843424126573,-0.40603526438151,1.76274068923486,0.294998945427962,0.237678139112563,-0.165080305146177,-0.335444977123815,0.702402451750591,0.103245385826219,-0.560926350531268
biasActivation=0,1,1
[BASIC:ACTIVATION]
"ActivationTANH"
"ActivationTANH"
"ActivationLinear"
