encog,BasicNetwork,java,3.2.0,1,63608332991276
[BASIC]
[BASIC:PARAMS]
[BASIC:NETWORK]
beginTraining=0
connectionLimit=0
contextTargetOffset=0,0,0
contextTargetSize=0,0,0
endTraining=2
hasContext=f
inputCount=3
layerCounts=1,7,4
layerFeedCounts=1,6,3
layerContextCount=0,0,0
layerIndex=0,1,8
output=0,0,0,0,0,0,0,1,0,0,0,1
outputCount=1
weightIndex=0,7,31
weights=-1.31638825474775,-0.147660266617688,-0.011934315104825,0.213875246005009,0.136514429252469,-1.31212735918195,0.0750953397852523,-24.7336786435524,0.998868559549988,0.935446647952822,-0.396200608037641,-0.0627789805780897,-0.530514113190927,-0.781057376574801,0.377858987608174,3.53724855708504,0.220253835212504,0.146210588177691,-0.0358895462067355,0.0721812849252513,0.513044084991818,0.0702982081376277,-0.352324586024795,0.107266685830746,0.439651834977484,0.132462136597583,-0.303647745177814,16.5444823575935,0.552462952277746,0.165757830705611,-0.413779187038734
biasActivation=0,1,1
[BASIC:ACTIVATION]
"ActivationTANH"
"ActivationTANH"
"ActivationLinear"
