encog,BasicNetwork,java,3.2.0,1,63608290508427
[BASIC]
[BASIC:PARAMS]
[BASIC:NETWORK]
beginTraining=0
connectionLimit=0
contextTargetOffset=0,0,0
contextTargetSize=0,0,0
endTraining=2
hasContext=f
inputCount=3
layerCounts=1,7,4
layerFeedCounts=1,6,3
layerContextCount=0,0,0
layerIndex=0,1,8
output=0,0,0,0,0,0,0,1,0,0,0,1
outputCount=1
weightIndex=0,7,31
weights=0.153408389715688,0.246522081043525,0.742269133333017,0.0706741571648593,-0.791627556574985,0.210708144682173,-0.054389820423105,-0.185686143980984,0.185357965356106,0.12225779068509,-0.689951228666018,0.135705427535064,0.411388031168656,3.9524350012945,0.611022063772277,1.49600045670651,-2.28841324096283,-2.37332961199613,0.835266130840588,-0.309584087905757,0.270974244276817,0.0681278060602474,-0.48589689841956,16.3631905817234,0.540813345213056,0.344819654371402,-0.702673675754952,0.227296718258463,-0.0666285374715289,0.224404058527585,0.453208762963778
biasActivation=0,1,1
[BASIC:ACTIVATION]
"ActivationTANH"
"ActivationTANH"
"ActivationLinear"
